<?xml version="1.0"?>
<opencv_storage>
<cascade>
  <stageType>BOOST</stageType>
  <featureType>HAAR</featureType>
  <height>64</height>
  <width>64</width>
  <stageParams>
    <boostType>GAB</boostType>
    <minHitRate>9.9500000476837158e-001</minHitRate>
    <maxFalseAlarm>5.0000000000000000e-001</maxFalseAlarm>
    <weightTrimRate>9.4999999999999996e-001</weightTrimRate>
    <maxDepth>1</maxDepth>
    <maxWeakCount>100</maxWeakCount></stageParams>
  <featureParams>
    <maxCatCount>0</maxCatCount>
    <featSize>1</featSize>
    <mode>BASIC</mode></featureParams>
  <stageNum>10</stageNum>
  <stages>
    <!-- stage 0 -->
    <_>
      <maxWeakCount>4</maxWeakCount>
      <stageThreshold>-1.7059819698333740e+000</stageThreshold>
      <weakClassifiers>
        <_>
          <internalNodes>
            0 -1 22 6.6190332174301147e-002</internalNodes>
          <leafValues>
            -9.1534394025802612e-001 8.1990522146224976e-001</leafValues></_>
        <_>
          <internalNodes>
            0 -1 4 1.6332986950874329e-001</internalNodes>
          <leafValues>
            -9.1265875101089478e-001 7.7463966608047485e-001</leafValues></_>
        <_>
          <internalNodes>
            0 -1 5 5.2337735891342163e-002</internalNodes>
          <leafValues>
            -5.8749437332153320e-001 8.1589454412460327e-001</leafValues></_>
        <_>
          <internalNodes>
            0 -1 25 -7.4940115213394165e-002</internalNodes>
          <leafValues>
            7.0951503515243530e-001 -7.6990276575088501e-001</leafValues></_></weakClassifiers></_>
    <!-- stage 1 -->
    <_>
      <maxWeakCount>2</maxWeakCount>
      <stageThreshold>-3.9014527201652527e-001</stageThreshold>
      <weakClassifiers>
        <_>
          <internalNodes>
            0 -1 1 1.5378190577030182e-001</internalNodes>
          <leafValues>
            -8.7368422746658325e-001 7.9047620296478271e-001</leafValues></_>
        <_>
          <internalNodes>
            0 -1 39 -1.8723360262811184e-003</internalNodes>
          <leafValues>
            4.8353892564773560e-001 -9.6795439720153809e-001</leafValues></_></weakClassifiers></_>
    <!-- stage 2 -->
    <_>
      <maxWeakCount>4</maxWeakCount>
      <stageThreshold>-1.7504328489303589e+000</stageThreshold>
      <weakClassifiers>
        <_>
          <internalNodes>
            0 -1 3 2.4836963415145874e-001</internalNodes>
          <leafValues>
            -8.5185188055038452e-001 7.6303315162658691e-001</leafValues></_>
        <_>
          <internalNodes>
            0 -1 8 1.0148925706744194e-002</internalNodes>
          <leafValues>
            -7.4522739648818970e-001 5.3328126668930054e-001</leafValues></_>
        <_>
          <internalNodes>
            0 -1 40 -4.7343983314931393e-003</internalNodes>
          <leafValues>
            5.2517902851104736e-001 -9.0692973136901855e-001</leafValues></_>
        <_>
          <internalNodes>
            0 -1 27 -7.8637842088937759e-003</internalNodes>
          <leafValues>
            6.4341449737548828e-001 -6.7853266000747681e-001</leafValues></_></weakClassifiers></_>
    <!-- stage 3 -->
    <_>
      <maxWeakCount>4</maxWeakCount>
      <stageThreshold>-7.9070830345153809e-001</stageThreshold>
      <weakClassifiers>
        <_>
          <internalNodes>
            0 -1 6 4.7680500894784927e-002</internalNodes>
          <leafValues>
            -9.0476191043853760e-001 6.5517240762710571e-001</leafValues></_>
        <_>
          <internalNodes>
            0 -1 35 -7.2357684373855591e-002</internalNodes>
          <leafValues>
            7.1754723787307739e-001 -7.4925506114959717e-001</leafValues></_>
        <_>
          <internalNodes>
            0 -1 28 4.5408857986330986e-003</internalNodes>
          <leafValues>
            -9.7256249189376831e-001 3.8297697901725769e-001</leafValues></_>
        <_>
          <internalNodes>
            0 -1 19 1.4689348638057709e-002</internalNodes>
          <leafValues>
            -8.0004286766052246e-001 4.8033165931701660e-001</leafValues></_></weakClassifiers></_>
    <!-- stage 4 -->
    <_>
      <maxWeakCount>4</maxWeakCount>
      <stageThreshold>-1.3423678874969482e+000</stageThreshold>
      <weakClassifiers>
        <_>
          <internalNodes>
            0 -1 13 2.7514755725860596e-001</internalNodes>
          <leafValues>
            -7.2448980808258057e-001 6.9607841968536377e-001</leafValues></_>
        <_>
          <internalNodes>
            0 -1 26 -2.7674131095409393e-002</internalNodes>
          <leafValues>
            7.6037979125976563e-001 -5.2310872077941895e-001</leafValues></_>
        <_>
          <internalNodes>
            0 -1 2 1.5699435770511627e-001</internalNodes>
          <leafValues>
            -7.2651553153991699e-001 5.5242490768432617e-001</leafValues></_>
        <_>
          <internalNodes>
            0 -1 12 2.0401061046868563e-003</internalNodes>
          <leafValues>
            -6.5174233913421631e-001 4.2888459563255310e-001</leafValues></_></weakClassifiers></_>
    <!-- stage 5 -->
    <_>
      <maxWeakCount>5</maxWeakCount>
      <stageThreshold>-1.6034367084503174e+000</stageThreshold>
      <weakClassifiers>
        <_>
          <internalNodes>
            0 -1 15 1.3978958129882813e-001</internalNodes>
          <leafValues>
            -7.2192513942718506e-001 6.3380283117294312e-001</leafValues></_>
        <_>
          <internalNodes>
            0 -1 29 4.3023290345445275e-004</internalNodes>
          <leafValues>
            -6.2304228544235229e-001 4.9205005168914795e-001</leafValues></_>
        <_>
          <internalNodes>
            0 -1 36 -1.5631715068593621e-003</internalNodes>
          <leafValues>
            5.9857374429702759e-001 -4.9560290575027466e-001</leafValues></_>
        <_>
          <internalNodes>
            0 -1 9 1.5918508172035217e-002</internalNodes>
          <leafValues>
            -4.8122018575668335e-001 6.6789424419403076e-001</leafValues></_>
        <_>
          <internalNodes>
            0 -1 47 -2.2817896679043770e-003</internalNodes>
          <leafValues>
            7.1164518594741821e-001 -4.3076062202453613e-001</leafValues></_></weakClassifiers></_>
    <!-- stage 6 -->
    <_>
      <maxWeakCount>5</maxWeakCount>
      <stageThreshold>-8.8654685020446777e-001</stageThreshold>
      <weakClassifiers>
        <_>
          <internalNodes>
            0 -1 42 -9.5664840191602707e-003</internalNodes>
          <leafValues>
            4.6724891662597656e-001 -6.2573099136352539e-001</leafValues></_>
        <_>
          <internalNodes>
            0 -1 18 1.0416177101433277e-003</internalNodes>
          <leafValues>
            -7.9945230484008789e-001 3.3894893527030945e-001</leafValues></_>
        <_>
          <internalNodes>
            0 -1 7 2.7934020385146141e-002</internalNodes>
          <leafValues>
            -3.9665222167968750e-001 7.1165066957473755e-001</leafValues></_>
        <_>
          <internalNodes>
            0 -1 24 4.2528058402240276e-003</internalNodes>
          <leafValues>
            -8.3212333917617798e-001 3.8346180319786072e-001</leafValues></_>
        <_>
          <internalNodes>
            0 -1 45 3.1448336085304618e-004</internalNodes>
          <leafValues>
            -4.7929212450981140e-001 5.6141316890716553e-001</leafValues></_></weakClassifiers></_>
    <!-- stage 7 -->
    <_>
      <maxWeakCount>7</maxWeakCount>
      <stageThreshold>-1.0789088010787964e+000</stageThreshold>
      <weakClassifiers>
        <_>
          <internalNodes>
            0 -1 37 -5.6543864309787750e-002</internalNodes>
          <leafValues>
            5.4054051637649536e-001 -6.7415732145309448e-001</leafValues></_>
        <_>
          <internalNodes>
            0 -1 17 2.8335509821772575e-002</internalNodes>
          <leafValues>
            -4.7264879941940308e-001 6.2218201160430908e-001</leafValues></_>
        <_>
          <internalNodes>
            0 -1 23 2.8878140728920698e-003</internalNodes>
          <leafValues>
            -6.2403446435928345e-001 4.1386079788208008e-001</leafValues></_>
        <_>
          <internalNodes>
            0 -1 46 3.0973777174949646e-003</internalNodes>
          <leafValues>
            -3.3374634385108948e-001 8.2807290554046631e-001</leafValues></_>
        <_>
          <internalNodes>
            0 -1 20 1.4470034511759877e-004</internalNodes>
          <leafValues>
            -7.2088247537612915e-001 3.4951150417327881e-001</leafValues></_>
        <_>
          <internalNodes>
            0 -1 16 -5.2194468677043915e-002</internalNodes>
          <leafValues>
            3.0711850523948669e-001 -7.3131912946701050e-001</leafValues></_>
        <_>
          <internalNodes>
            0 -1 21 3.6876715719699860e-002</internalNodes>
          <leafValues>
            -6.3320833444595337e-001 3.6959052085876465e-001</leafValues></_></weakClassifiers></_>
    <!-- stage 8 -->
    <_>
      <maxWeakCount>7</maxWeakCount>
      <stageThreshold>-8.9583891630172729e-001</stageThreshold>
      <weakClassifiers>
        <_>
          <internalNodes>
            0 -1 33 1.8437227699905634e-003</internalNodes>
          <leafValues>
            -5.1322752237319946e-001 4.5971563458442688e-001</leafValues></_>
        <_>
          <internalNodes>
            0 -1 14 -7.7584316022694111e-003</internalNodes>
          <leafValues>
            6.0743224620819092e-001 -4.3337860703468323e-001</leafValues></_>
        <_>
          <internalNodes>
            0 -1 30 -9.0241106227040291e-004</internalNodes>
          <leafValues>
            3.1774726510047913e-001 -7.3222547769546509e-001</leafValues></_>
        <_>
          <internalNodes>
            0 -1 31 1.1881615966558456e-002</internalNodes>
          <leafValues>
            -8.4581047296524048e-001 3.4636029601097107e-001</leafValues></_>
        <_>
          <internalNodes>
            0 -1 44 -6.6900544334203005e-004</internalNodes>
          <leafValues>
            6.7018502950668335e-001 -4.0796631574630737e-001</leafValues></_>
        <_>
          <internalNodes>
            0 -1 11 2.1484564058482647e-003</internalNodes>
          <leafValues>
            -7.1336871385574341e-001 3.3608058094978333e-001</leafValues></_>
        <_>
          <internalNodes>
            0 -1 43 -1.2300240341573954e-003</internalNodes>
          <leafValues>
            6.5943825244903564e-001 -3.9009472727775574e-001</leafValues></_></weakClassifiers></_>
    <!-- stage 9 -->
    <_>
      <maxWeakCount>7</maxWeakCount>
      <stageThreshold>-5.4799634218215942e-001</stageThreshold>
      <weakClassifiers>
        <_>
          <internalNodes>
            0 -1 48 -3.7889962550252676e-004</internalNodes>
          <leafValues>
            4.0322580933570862e-001 -6.5789473056793213e-001</leafValues></_>
        <_>
          <internalNodes>
            0 -1 0 1.4144864678382874e-001</internalNodes>
          <leafValues>
            -6.3351017236709595e-001 3.9387822151184082e-001</leafValues></_>
        <_>
          <internalNodes>
            0 -1 10 -5.3209755569696426e-003</internalNodes>
          <leafValues>
            6.2443912029266357e-001 -4.5305383205413818e-001</leafValues></_>
        <_>
          <internalNodes>
            0 -1 34 -8.2176242722198367e-004</internalNodes>
          <leafValues>
            7.7102428674697876e-001 -2.5063997507095337e-001</leafValues></_>
        <_>
          <internalNodes>
            0 -1 32 2.3406946274917573e-004</internalNodes>
          <leafValues>
            -3.5400700569152832e-001 6.3182502985000610e-001</leafValues></_>
        <_>
          <internalNodes>
            0 -1 38 -2.0695594139397144e-004</internalNodes>
          <leafValues>
            4.3260207772254944e-001 -5.2153658866882324e-001</leafValues></_>
        <_>
          <internalNodes>
            0 -1 41 -1.5766786411404610e-002</internalNodes>
          <leafValues>
            4.1595676541328430e-001 -6.4471316337585449e-001</leafValues></_></weakClassifiers></_></stages>
  <features>
    <_>
      <rects>
        <_>
          0 12 63 18 -1.</_>
        <_>
          21 12 21 18 3.</_></rects>
      <tilted>0</tilted></_>
    <_>
      <rects>
        <_>
          0 15 54 35 -1.</_>
        <_>
          18 15 18 35 3.</_></rects>
      <tilted>0</tilted></_>
    <_>
      <rects>
        <_>
          0 15 63 19 -1.</_>
        <_>
          21 15 21 19 3.</_></rects>
      <tilted>0</tilted></_>
    <_>
      <rects>
        <_>
          0 17 63 36 -1.</_>
        <_>
          21 17 21 36 3.</_></rects>
      <tilted>0</tilted></_>
    <_>
      <rects>
        <_>
          0 19 63 29 -1.</_>
        <_>
          21 19 21 29 3.</_></rects>
      <tilted>0</tilted></_>
    <_>
      <rects>
        <_>
          0 22 22 26 -1.</_>
        <_>
          11 22 11 26 2.</_></rects>
      <tilted>0</tilted></_>
    <_>
      <rects>
        <_>
          0 26 45 16 -1.</_>
        <_>
          15 26 15 16 3.</_></rects>
      <tilted>0</tilted></_>
    <_>
      <rects>
        <_>
          3 0 14 46 -1.</_>
        <_>
          3 0 7 23 2.</_>
        <_>
          10 23 7 23 2.</_></rects>
      <tilted>0</tilted></_>
    <_>
      <rects>
        <_>
          3 23 18 13 -1.</_>
        <_>
          12 23 9 13 2.</_></rects>
      <tilted>0</tilted></_>
    <_>
      <rects>
        <_>
          5 0 16 30 -1.</_>
        <_>
          5 0 8 15 2.</_>
        <_>
          13 15 8 15 2.</_></rects>
      <tilted>0</tilted></_>
    <_>
      <rects>
        <_>
          5 41 16 12 -1.</_>
        <_>
          5 41 8 6 2.</_>
        <_>
          13 47 8 6 2.</_></rects>
      <tilted>0</tilted></_>
    <_>
      <rects>
        <_>
          6 26 17 21 -1.</_>
        <_>
          6 33 17 7 3.</_></rects>
      <tilted>0</tilted></_>
    <_>
      <rects>
        <_>
          7 27 18 15 -1.</_>
        <_>
          13 27 6 15 3.</_></rects>
      <tilted>0</tilted></_>
    <_>
      <rects>
        <_>
          8 0 56 63 -1.</_>
        <_>
          8 21 56 21 3.</_></rects>
      <tilted>0</tilted></_>
    <_>
      <rects>
        <_>
          8 41 16 16 -1.</_>
        <_>
          8 41 8 8 2.</_>
        <_>
          16 49 8 8 2.</_></rects>
      <tilted>0</tilted></_>
    <_>
      <rects>
        <_>
          9 0 20 63 -1.</_>
        <_>
          9 21 20 21 3.</_></rects>
      <tilted>0</tilted></_>
    <_>
      <rects>
        <_>
          10 38 34 26 -1.</_>
        <_>
          10 51 34 13 2.</_></rects>
      <tilted>0</tilted></_>
    <_>
      <rects>
        <_>
          12 4 3 60 -1.</_>
        <_>
          12 24 3 20 3.</_></rects>
      <tilted>0</tilted></_>
    <_>
      <rects>
        <_>
          13 7 8 25 -1.</_>
        <_>
          17 7 4 25 2.</_></rects>
      <tilted>0</tilted></_>
    <_>
      <rects>
        <_>
          13 32 27 22 -1.</_>
        <_>
          22 32 9 22 3.</_></rects>
      <tilted>0</tilted></_>
    <_>
      <rects>
        <_>
          14 18 2 39 -1.</_>
        <_>
          15 18 1 39 2.</_></rects>
      <tilted>0</tilted></_>
    <_>
      <rects>
        <_>
          15 9 45 18 -1.</_>
        <_>
          30 9 15 18 3.</_></rects>
      <tilted>0</tilted></_>
    <_>
      <rects>
        <_>
          16 3 14 60 -1.</_>
        <_>
          16 23 14 20 3.</_></rects>
      <tilted>0</tilted></_>
    <_>
      <rects>
        <_>
          17 4 10 29 -1.</_>
        <_>
          22 4 5 29 2.</_></rects>
      <tilted>0</tilted></_>
    <_>
      <rects>
        <_>
          17 30 21 22 -1.</_>
        <_>
          24 30 7 22 3.</_></rects>
      <tilted>0</tilted></_>
    <_>
      <rects>
        <_>
          17 30 41 32 -1.</_>
        <_>
          17 46 41 16 2.</_></rects>
      <tilted>0</tilted></_>
    <_>
      <rects>
        <_>
          17 45 20 16 -1.</_>
        <_>
          17 53 20 8 2.</_></rects>
      <tilted>0</tilted></_>
    <_>
      <rects>
        <_>
          18 37 3 26 -1.</_>
        <_>
          18 50 3 13 2.</_></rects>
      <tilted>0</tilted></_>
    <_>
      <rects>
        <_>
          19 8 16 36 -1.</_>
        <_>
          19 20 16 12 3.</_></rects>
      <tilted>0</tilted></_>
    <_>
      <rects>
        <_>
          19 13 6 10 -1.</_>
        <_>
          22 13 3 10 2.</_></rects>
      <tilted>0</tilted></_>
    <_>
      <rects>
        <_>
          20 32 22 7 -1.</_>
        <_>
          31 32 11 7 2.</_></rects>
      <tilted>0</tilted></_>
    <_>
      <rects>
        <_>
          23 13 30 39 -1.</_>
        <_>
          33 13 10 39 3.</_></rects>
      <tilted>0</tilted></_>
    <_>
      <rects>
        <_>
          23 29 8 2 -1.</_>
        <_>
          27 29 4 2 2.</_></rects>
      <tilted>0</tilted></_>
    <_>
      <rects>
        <_>
          34 6 3 14 -1.</_>
        <_>
          34 13 3 7 2.</_></rects>
      <tilted>0</tilted></_>
    <_>
      <rects>
        <_>
          35 48 12 4 -1.</_>
        <_>
          35 48 6 2 2.</_>
        <_>
          41 50 6 2 2.</_></rects>
      <tilted>0</tilted></_>
    <_>
      <rects>
        <_>
          36 15 28 33 -1.</_>
        <_>
          50 15 14 33 2.</_></rects>
      <tilted>0</tilted></_>
    <_>
      <rects>
        <_>
          36 30 12 22 -1.</_>
        <_>
          36 30 6 11 2.</_>
        <_>
          42 41 6 11 2.</_></rects>
      <tilted>0</tilted></_>
    <_>
      <rects>
        <_>
          37 15 22 35 -1.</_>
        <_>
          48 15 11 35 2.</_></rects>
      <tilted>0</tilted></_>
    <_>
      <rects>
        <_>
          39 8 4 12 -1.</_>
        <_>
          41 8 2 12 2.</_></rects>
      <tilted>0</tilted></_>
    <_>
      <rects>
        <_>
          39 14 10 21 -1.</_>
        <_>
          44 14 5 21 2.</_></rects>
      <tilted>0</tilted></_>
    <_>
      <rects>
        <_>
          41 14 8 38 -1.</_>
        <_>
          45 14 4 38 2.</_></rects>
      <tilted>0</tilted></_>
    <_>
      <rects>
        <_>
          44 18 7 46 -1.</_>
        <_>
          44 41 7 23 2.</_></rects>
      <tilted>0</tilted></_>
    <_>
      <rects>
        <_>
          46 11 10 40 -1.</_>
        <_>
          51 11 5 40 2.</_></rects>
      <tilted>0</tilted></_>
    <_>
      <rects>
        <_>
          46 13 8 10 -1.</_>
        <_>
          46 13 4 5 2.</_>
        <_>
          50 18 4 5 2.</_></rects>
      <tilted>0</tilted></_>
    <_>
      <rects>
        <_>
          46 38 4 12 -1.</_>
        <_>
          46 38 2 6 2.</_>
        <_>
          48 44 2 6 2.</_></rects>
      <tilted>0</tilted></_>
    <_>
      <rects>
        <_>
          47 21 6 6 -1.</_>
        <_>
          47 21 3 3 2.</_>
        <_>
          50 24 3 3 2.</_></rects>
      <tilted>0</tilted></_>
    <_>
      <rects>
        <_>
          49 35 8 16 -1.</_>
        <_>
          49 35 4 8 2.</_>
        <_>
          53 43 4 8 2.</_></rects>
      <tilted>0</tilted></_>
    <_>
      <rects>
        <_>
          50 14 10 16 -1.</_>
        <_>
          50 14 5 8 2.</_>
        <_>
          55 22 5 8 2.</_></rects>
      <tilted>0</tilted></_>
    <_>
      <rects>
        <_>
          51 25 4 26 -1.</_>
        <_>
          51 38 4 13 2.</_></rects>
      <tilted>0</tilted></_></features></cascade>
</opencv_storage>
